#ifndef W1_H
#define W1_H

const float w1[216] = {
    -0.039668358862400055f, 0.17317616939544678f, 0.12880460917949677f, 0.08773031085729599f, 0.17821884155273438f, -0.04808512330055237f, 0.03035687655210495f, -0.1792520135641098f, 0.2544446587562561f, 0.016998348757624626f,
    -0.003556945128366351f, -0.15985241532325745f, -0.14297589659690857f, -0.30576032400131226f, -0.028271207585930824f, -0.08596345782279968f, -0.1419861763715744f, -0.16464483737945557f, 0.20916283130645752f, 0.10128168761730194f,
    0.05040386691689491f, -0.029041379690170288f, 0.05157767981290817f, 0.11788644641637802f, -0.1352165937423706f, 0.00391011219471693f, 0.06606894731521606f, 0.30003827810287476f, 0.03183068335056305f, 0.13819748163223267f,
    -0.15864598751068115f, 0.14164851605892181f, 0.22228705883026123f, -0.10165423899888992f, 0.07757408171892166f, 0.09407904744148254f, -0.2651616334915161f, -0.15681548416614532f, 0.19128894805908203f, 0.06331087648868561f,
    0.11007586121559143f, 0.22808527946472168f, -0.05549655109643936f, -0.008194931782782078f, -0.18260957300662994f, 0.005626065190881491f, 0.2471490055322647f, -0.00015733347390778363f, -0.1187734305858612f, 0.1933339387178421f,
    0.17938455939292908f, 0.02490520477294922f, 0.04507583752274513f, 0.23441579937934875f, 0.04855513200163841f, -0.26182448863983154f, -0.15728704631328583f, -0.030966326594352722f, 0.14532984793186188f, -0.038281023502349854f,
    0.0057192291133105755f, -0.12080394476652145f, -0.019401848316192627f, 0.03414705768227577f, -0.12703824043273926f, -0.012330490164458752f, 0.06693778932094574f, -0.003706081071868539f, -0.2172519713640213f, -0.066787950694561f,
    0.05959124490618706f, 0.10312913358211517f, -0.19100196659564972f, 0.2660331130027771f, -0.06959711015224457f, 0.0016892103012651205f, 0.1373683512210846f, 0.2618551552295685f, 0.14252138137817383f, -0.17110329866409302f,
    0.010925356298685074f, -0.27798017859458923f, 0.03242023289203644f, -0.13959212601184845f, -0.2169799506664276f, 0.06748408079147339f, 0.01742289401590824f, 0.16161182522773743f, 0.17154057323932648f, -0.15060415863990784f,
    0.14486728608608246f, 0.0235116109251976f, 0.19200856983661652f, 0.11013108491897583f, -0.10476543009281158f, -0.004154208116233349f, -0.22758105397224426f, -0.03616291657090187f, 0.06228946894407272f, 0.09691248834133148f,
    0.036996692419052124f, 0.27620336413383484f, -0.23692241311073303f, -0.18367239832878113f, 0.26029330492019653f, -0.02924133464694023f, 0.20715999603271484f, 0.1039738729596138f, 0.12099359184503555f, -0.1272437870502472f,
    0.2000543773174286f, -0.12953931093215942f, 0.11043283343315125f, -0.08639457076787949f, 0.22589488327503204f, -0.24755963683128357f, -0.2485920935869217f, 0.19298526644706726f, -0.037428587675094604f, -0.01380838081240654f,
    0.20185038447380066f, 0.08357001096010208f, -0.09756826609373093f, 0.045550063252449036f, 0.2806316316127777f, -0.08984294533729553f, 0.060974955558776855f, 0.0763770192861557f, -0.0518956258893013f, -0.28262820839881897f,
    0.12960124015808105f, 0.22207441926002502f, 0.025458086282014847f, -0.2830673158168793f, -0.09153324365615845f, -0.08245515078306198f, 0.05051754415035248f, -0.11625125259160995f, 0.01968267187476158f, 0.20506897568702698f,
    -0.013498702086508274f, 0.04591387137770653f, 0.1879591941833496f, 0.15305644273757935f, -0.19409778714179993f, 0.052986785769462585f, -0.30233997106552124f, 0.1712171733379364f, 0.10068769007921219f, -0.10601112991571426f,
    -0.010193780064582825f, 0.16628719866275787f, 0.17408296465873718f, -0.028965109959244728f, -0.09357742220163345f, 0.035095781087875366f, -0.21389596164226532f, -0.031432799994945526f, -0.006469009909778833f, 0.27470892667770386f,
    0.06932651251554489f, -0.0060967933386564255f, -0.06939561665058136f, -0.0062374547123909f, 0.11304763704538345f, -0.051372673362493515f, 0.06595081090927124f, 0.241382896900177f, -0.0056562647223472595f, -0.17349651455879211f,
    -0.07270435988903046f, 0.14288713037967682f, 0.06354095041751862f, -0.07160399854183197f, -0.07160776108503342f, -0.15265199542045593f, -0.1664840281009674f, -0.0984480082988739f, 0.23048655688762665f, -0.197463721036911f,
    0.09931104630231857f, -0.34956473112106323f, -0.14522577822208405f, -0.03166983276605606f, 0.15580418705940247f, -0.091925710439682f, 0.05793830379843712f, -0.09590315073728561f, -0.004076112061738968f, -0.10517299175262451f,
    0.0323805995285511f, -0.01146688498556614f, -0.16670535504817963f, 0.07405614107847214f, 0.09478410333395004f, 0.0984494760632515f, 0.1547292321920395f, 0.24591386318206787f, -0.277543306350708f, -0.1614610105752945f,
    0.11571145057678223f, -0.11898984014987946f, -0.06618699431419373f, -0.1667538583278656f, 0.03278321400284767f, -0.25589466094970703f, 0.0807228609919548f, 0.08534904569387436f, -0.031775083392858505f, 0.18415497243404388f,
    0.09448834508657455f, 0.1060219332575798f, 0.10544110834598541f, 0.03661066293716431f, 0.26432710886001587f, 0.02760903909802437f,
};

#endif // W1_H
