#ifndef W2_H
#define W2_H

const float w2[1152] = {
    0.15139693021774292f, 0.018949000164866447f, 0.03009270876646042f, -0.08754206448793411f, 0.021790530532598495f, -0.09031590074300766f, 0.04587526246905327f, 0.13155382871627808f, 0.13800795376300812f, -0.008384053595364094f,
    0.23388148844242096f, -0.008458469994366169f, -0.07440213114023209f, 0.165549173951149f, -0.059043820947408676f, 0.24215367436408997f, -0.07902335375547409f, 0.17597778141498566f, -0.13015791773796082f, -0.10105414688587189f,
    0.23998518288135529f, -0.09964597970247269f, 0.4683440923690796f, 0.19081173837184906f, 0.33491918444633484f, -0.10887368023395538f, -0.038576237857341766f, -0.06927687674760818f, -0.3337272107601166f, 0.4422813355922699f,
    -0.0010267283068969846f, -0.34261804819107056f, -0.16679741442203522f, 0.15510740876197815f, 0.008380339480936527f, 0.0824272409081459f, 0.09431848675012589f, -0.08087119460105896f, -0.010701791383326054f, 0.04779363051056862f,
    -0.1515490710735321f, -0.1943918913602829f, -0.09543028473854065f, 0.04403119161725044f, 0.15318931639194489f, -0.03611317276954651f, -0.1802884042263031f, 0.04726466163992882f, -0.16059090197086334f, 0.2091665416955948f,
    -0.08307553827762604f, -0.0293169766664505f, -0.17628420889377594f, -0.09338222444057465f, -0.028272485360503197f, -0.0977521613240242f, -0.10895292460918427f, -0.09830141812562943f, -0.20223921537399292f, 0.0018308578291907907f,
    0.08683118969202042f, -0.025231562554836273f, 0.03648876026272774f, 0.19984395802021027f, -0.21116261184215546f, 0.04692131280899048f, -0.16438405215740204f, 0.15814809501171112f, -0.230641707777977f, -0.02822127752006054f,
    -0.04294309765100479f, -0.17894282937049866f, 0.04484117403626442f, -0.09825516492128372f, 0.019310811534523964f, 0.1790909767150879f, 0.11688107252120972f, 0.09722287207841873f, -0.1623733788728714f, -0.02690020017325878f,
    -0.07154581695795059f, 0.4398242235183716f, -0.025046035647392273f, -0.21319501101970673f, -0.07023396342992783f, -0.29925206303596497f, 0.3492288589477539f, -0.08561428636312485f, 0.44881319999694824f, -0.027258479967713356f,
    -0.068410724401474f, -0.23764173686504364f, -0.4407000243663788f, 0.47279635071754456f, -0.015261629596352577f, -0.12702852487564087f, -0.07605032622814178f, 0.007893525995314121f, -0.11293065547943115f, -0.11451325565576553f,
    0.11474518477916718f, -0.027917947620153427f, 0.16313377022743225f, 0.10934606939554214f, -0.07612771540880203f, 0.027412982657551765f, 0.1116107627749443f, -0.0878639817237854f, 0.05727149173617363f, 0.045894522219896317f,
    -0.003158222185447812f, 0.1654215157032013f, 0.13623039424419403f, 0.21063941717147827f, 0.0921897366642952f, -0.09441153705120087f, 0.13550883531570435f, 0.05221667140722275f, 0.07150304317474365f, 0.10737035423517227f,
    0.12769350409507751f, 0.08269026130437851f, 0.10997737944126129f, 0.10064611583948135f, -0.2424657940864563f, -0.07021544128656387f, 0.14845053851604462f, 0.22465787827968597f, 0.07952415198087692f, 0.22790779173374176f,
    0.06233258917927742f, 0.04383602365851402f, 0.2962544560432434f, -0.06048858165740967f, 0.10945288836956024f, 0.10715702921152115f, 0.1467810720205307f, -0.025583870708942413f, 0.08121425658464432f, -0.05582549050450325f,
    -0.14138288795948029f, -0.015796450898051262f, 0.20441709458827972f, -0.07493704557418823f, -0.20827482640743256f, 0.22912216186523438f, 0.0030556372366845608f, -0.2147558182477951f, 0.3291241228580475f, -0.07795549184083939f,
    0.2857794463634491f, 0.14425615966320038f, 0.3135569393634796f, -0.15793737769126892f, 0.07661162316799164f, -0.04031630977988243f, -0.30350595712661743f, 0.17789815366268158f, -0.017469992861151695f, 0.006648579612374306f,
    -0.10963957011699677f, 0.07538330554962158f, -0.08487335592508316f, -0.04891471937298775f, 0.15376177430152893f, -0.10177580267190933f, 0.048460669815540314f, -0.06568918377161026f, -0.13903622329235077f, 0.00713399238884449f,
    -0.2273327261209488f, 0.10751166939735413f, 0.17178121209144592f, -0.001546023297123611f, -0.13685660064220428f, 0.049972549080848694f, -0.24390734732151031f, 0.012830222956836224f, -0.10509932786226273f, 0.10378947854042053f,
    -0.1853761225938797f, 0.09488219767808914f, 0.027624724432826042f, -0.16751545667648315f, -0.011891208589076996f, -0.09481698274612427f, -0.19187556207180023f, -0.07196992635726929f, -0.06035241484642029f, -0.10361501574516296f,
    0.08030659705400467f, 0.12870503962039948f, 0.1229170560836792f, 0.10012444108724594f, -0.10695281624794006f, 0.12833046913146973f, -0.1533600389957428f, 0.12704384326934814f, -0.22335536777973175f, -0.21485339105129242f,
    -0.08199897408485413f, -0.00022680661641061306f, 0.11795960366725922f, 0.16072756052017212f, -0.04836784675717354f, 0.06440571695566177f, -0.20823554694652557f, 0.11574763804674149f, -0.007146997842937708f, 0.34002768993377686f,
    -0.10555562376976013f, -0.16787593066692352f, 0.17565207183361053f, -0.39167511463165283f, 0.25588417053222656f, -0.08884190768003464f, 0.2523801624774933f, -0.12241189181804657f, 0.09634987264871597f, -0.3314278721809387f,
    -0.44391801953315735f, 0.32276585698127747f, -0.12246480584144592f, 0.0004333272809162736f, 0.044873327016830444f, -0.011809288524091244f, -0.13947883248329163f, 0.09410347789525986f, 0.12149212509393692f, 0.1048315018415451f,
    0.03675536438822746f, 0.15808169543743134f, 0.03784477710723877f, -0.037860650569200516f, -0.1378447264432907f, 0.008261068724095821f, -0.02977864444255829f, -0.05299863964319229f, 0.016942931339144707f, 0.026691246777772903f,
    0.20322072505950928f, 0.2243468463420868f, -0.12010466307401657f, 0.12252523750066757f, 0.11352195590734482f, 0.023114001378417015f, 0.019214347004890442f, 0.22457148134708405f, 0.05439169332385063f, -0.03581962361931801f,
    0.15393900871276855f, -0.03735263645648956f, 0.023994961753487587f, 0.04547306150197983f, -0.057792119681835175f, 0.03631160780787468f, 0.005574741400778294f, 0.22023600339889526f, 0.07597627490758896f, -0.00021742263925261796f,
    0.25473636388778687f, -0.1873377412557602f, 0.27022603154182434f, 0.05004231631755829f, 0.02840028703212738f, 0.14895625412464142f, 0.08956614881753922f, -0.2829495370388031f, -0.016574665904045105f, -0.01715056784451008f,
    0.04279078543186188f, 0.17107568681240082f, -0.1830725371837616f, 0.4052674472332001f, 0.025094766169786453f, -0.10942684859037399f, 0.12948668003082275f, 0.06621091812849045f, 0.3618532717227936f, 0.031042899936437607f,
    0.18098628520965576f, 0.03386865556240082f, -0.16731785237789154f, -0.06065557897090912f, -0.21757906675338745f, 0.42823296785354614f, -0.092247873544693f, -0.02117767371237278f, -0.14861030876636505f, 0.15725143253803253f,
    0.10422812402248383f, 0.09399043023586273f, 0.10443273931741714f, -0.04792395606637001f, 0.1335095465183258f, 0.17899075150489807f, 0.04262666776776314f, -0.051959842443466187f, -0.0038294526748359203f, 0.10316372662782669f,
    0.11275817453861237f, 0.08107119798660278f, -0.14495021104812622f, -0.1464260220527649f, 0.10127656161785126f, 0.040177904069423676f, 0.20358586311340332f, 0.17970474064350128f, 0.1367136836051941f, -0.04118574783205986f,
    -0.023874986916780472f, -0.07399146258831024f, -0.025372261181473732f, -0.029868468642234802f, -0.15678606927394867f, -0.08038195967674255f, 0.17230069637298584f, 0.14636370539665222f, -0.09411855787038803f, -0.19919192790985107f,
    -0.12450779229402542f, 0.07935063540935516f, 0.03413727506995201f, 0.10750787705183029f, -0.22560133039951324f, 0.2443385124206543f, -0.1410161703824997f, 0.05159834772348404f, -0.023717492818832397f, -0.05646507441997528f,
    -0.12501130998134613f, 0.07349149137735367f, 0.17716696858406067f, -0.04706301912665367f, -0.03173423185944557f, -0.19294244050979614f, -0.14106938242912292f, 0.3150379955768585f, 0.09123866260051727f, -0.2619929015636444f,
    0.19604365527629852f, -0.3155111074447632f, 0.48233065009117126f, -0.018245579674839973f, 0.4072221517562866f, -0.2218390703201294f, 0.09990616887807846f, -0.04900488629937172f, -0.1730535477399826f, 0.3767717480659485f,
    -0.20580554008483887f, -0.31960272789001465f, 0.08615479618310928f, 0.10656750947237015f, 0.14999617636203766f, 0.007861957885324955f, 0.10421834886074066f, 0.18003347516059875f, -0.11384086310863495f, 0.014153908006846905f,
    0.1078895777463913f, 0.11477810144424438f, -0.06306388974189758f, -0.16040407121181488f, -0.04883042722940445f, 0.11012403666973114f, -0.11009865999221802f, -0.04366696998476982f, 0.16633635759353638f, 0.08130403608083725f,
    0.08962731808423996f, -0.007480265107005835f, 0.012303118593990803f, 0.10219801962375641f, 0.23040753602981567f, 0.029212627559900284f, 0.20504802465438843f, -0.015802942216396332f, 0.1337491273880005f, -0.1518716961145401f,
    -0.05147884413599968f, 0.13777503371238708f, -0.10157744586467743f, -0.03820864483714104f, 0.056970927864313126f, 0.06710458546876907f, -0.12761132419109344f, -0.25989577174186707f, 0.1546085774898529f, -0.0722927525639534f,
    0.3330071270465851f, 0.1703687161207199f, 0.0363936610519886f, -0.08165289461612701f, 0.11812403053045273f, -0.32990261912345886f, -0.0862744078040123f, 0.03249756246805191f, -0.02408149093389511f, -0.02300434559583664f,
    0.07740142196416855f, 0.3748607933521271f, -0.20113056898117065f, -0.07060609757900238f, -0.011507675051689148f, -0.2152048945426941f, 0.35099419951438904f, 0.026256969198584557f, 0.38650256395339966f, -0.0919436365365982f,
    0.0680219903588295f, -0.265125572681427f, -0.11042077094316483f, 0.3226267695426941f, -0.2031516581773758f, 0.03477327525615692f, -0.19336092472076416f, 0.1645766943693161f, -0.00769147090613842f, 0.16935229301452637f,
    -0.14628539979457855f, 0.15788757801055908f, -0.08739617466926575f, -0.016913941130042076f, -0.024672159925103188f, -0.09474041312932968f, -0.1040312647819519f, 0.16081485152244568f, 0.028018450364470482f, 0.10205905884504318f,
    -0.07770949602127075f, 0.21655993163585663f, -0.02390914410352707f, 0.13934606313705444f, -0.23574663698673248f, -0.04813821613788605f, 0.006178662646561861f, 0.1279151290655136f, 0.10227417200803757f, -0.07783665508031845f,
    -0.08149837702512741f, -0.08065164089202881f, 0.015800027176737785f, -0.004955620504915714f, 0.21386277675628662f, -0.04606584832072258f, -0.011484594084322453f, 0.13546238839626312f, -0.09832309931516647f, 0.05262962356209755f,
    -0.1997007429599762f, 0.14006966352462769f, -0.20773376524448395f, 0.09364625811576843f, -0.0006025915499776602f, -0.08714986592531204f, -0.13601350784301758f, 0.04431072995066643f, 0.028356414288282394f, 0.22501340508460999f,
    0.21102209389209747f, 0.043191298842430115f, 0.10806535929441452f, -0.04121077060699463f, -0.07936905324459076f, 0.4110124707221985f, 0.01598791405558586f, -0.2479824274778366f, 0.013615498319268227f, -0.27181485295295715f,
    0.3177245259284973f, -0.1234302669763565f, 0.37270858883857727f, -0.003235405310988426f, -0.14703088998794556f, -0.26921525597572327f, -0.29079926013946533f, 0.32529503107070923f, 0.048134543001651764f, -0.1665387600660324f,
    -0.11687692254781723f, 0.08990190178155899f, -0.04901104420423508f, 0.12868516147136688f, 0.05212533101439476f, 0.04035451263189316f, -0.06959300488233566f, -0.09053965657949448f, 0.015529311262071133f, -0.06488333642482758f,
    0.0743212029337883f, -0.125986248254776f, 0.13377906382083893f, 0.05695558339357376f, 0.06405714154243469f, 0.028560973703861237f, 0.02207891270518303f, 0.13436447083950043f, -0.15278953313827515f, -0.25528448820114136f,
    -0.01615718938410282f, -0.11279462277889252f, 0.030337734147906303f, 0.1824117749929428f, 0.08767721801996231f, -0.04887567088007927f, 0.011993078514933586f, -0.27902454137802124f, -0.19258145987987518f, 0.1793358325958252f,
    -0.09227168560028076f, -0.0441741943359375f, 0.1328948736190796f, 0.15593402087688446f, 0.04640354961156845f, -0.08907194435596466f, 0.2890298068523407f, -0.07626425474882126f, 0.23690453171730042f, 0.20129477977752686f,
    0.20581762492656708f, -0.11839782446622849f, -0.06575807183980942f, -0.2253832072019577f, -0.07160679250955582f, 0.23960506916046143f, -0.001467974274419248f, 0.20218388736248016f, 0.030302993953227997f, 0.2973440885543823f,
    0.04380033165216446f, -0.04290914908051491f, -0.012129725888371468f, -0.26927056908607483f, 0.22289901971817017f, -0.18813186883926392f, 0.36572831869125366f, 0.07520741969347f, 0.1790153533220291f, -0.2574355900287628f,
    -0.04682664945721626f, 0.22324568033218384f, 0.10650413483381271f, -0.13118469715118408f, 0.08886706084012985f, -0.0651480108499527f, -0.03936134651303291f, -0.0946335643529892f, -0.04954076185822487f, 0.06895116716623306f,
    0.15421825647354126f, -0.009672925807535648f, 0.15786197781562805f, -0.07708732783794403f, -0.07707208395004272f, 0.13802774250507355f, 0.08621860295534134f, -0.08070778101682663f, -0.09399441629648209f, -0.09841886162757874f,
    0.09495384991168976f, 0.10406247526407242f, -0.17449049651622772f, 0.09839266538619995f, -0.031431008130311966f, 0.022399116307497025f, -0.08871474117040634f, -0.08139967173337936f, 0.12117031961679459f, 0.023051835596561432f,
    -0.015291544608771801f, 0.07047659903764725f, 0.09995148330926895f, 0.19043157994747162f, 0.10183034837245941f, -0.13085319101810455f, -0.0656997561454773f, 0.09371452778577805f, 0.02969718538224697f, -0.03812956437468529f,
    -0.14170487225055695f, 0.22310203313827515f, -0.08826891332864761f, 0.00579438079148531f, 0.050433382391929626f, -0.10531225055456161f, 0.18645043671131134f, 0.2429116815328598f, 0.15122660994529724f, -0.015759073197841644f,
    -0.0718022882938385f, -0.14830823242664337f, 0.0843566507101059f, 0.560126781463623f, -0.061984263360500336f, -0.31770217418670654f, -0.11693862825632095f, -0.2018003761768341f, 0.39602646231651306f, -0.23970000445842743f,
    0.3296748697757721f, -0.1467418670654297f, -0.012180929072201252f, -0.03908136114478111f, -0.44940391182899475f, 0.2453705221414566f, 0.046962156891822815f, 0.07660148292779922f, -0.14149180054664612f, 0.20609895884990692f,
    0.09315168857574463f, 0.12178628891706467f, 0.05083833634853363f, 0.1287156343460083f, 0.00847160629928112f, 0.04716002196073532f, 0.0535118468105793f, 0.15589341521263123f, 0.1342260092496872f, 0.05017770081758499f,
    0.013724204152822495f, 0.009103478863835335f, 0.12687183916568756f, 0.13666373491287231f, 0.24314889311790466f, 0.03805952146649361f, 0.027732854709029198f, 0.02298862859606743f, 0.16054587066173553f, -0.25100624561309814f,
    -0.03479260578751564f, -0.03993365541100502f, 0.2007816731929779f, 0.206752210855484f, 0.007486592046916485f, -0.0367216095328331f, -0.0899919793009758f, 0.1861601024866104f, 0.15286655724048615f, 0.07362016290426254f,
    -0.07093720138072968f, 0.194883331656456f, -0.11306595802307129f, -0.16621100902557373f, 0.22709567844867706f, -0.20701153576374054f, 0.2929757237434387f, 0.38307714462280273f, 0.19268923997879028f, 0.0639527440071106f,
    0.1627250462770462f, -0.20756566524505615f, -0.15871863067150116f, 0.26033174991607666f, 0.20416776835918427f, 0.037134651094675064f, -0.09299129247665405f, 0.10409997403621674f, 0.02715892530977726f, -0.2288307547569275f,
    0.1227601021528244f, -0.21216310560703278f, 0.33091020584106445f, -0.09439495950937271f, 0.2613738477230072f, 0.16067631542682648f, -0.048752762377262115f, 0.02234470285475254f, -0.122749924659729f, 0.4399307370185852f,
    -0.22351635992527008f, -0.07189976423978806f, 0.17594791948795319f, 0.035957805812358856f, 0.18665874004364014f, -0.05463438853621483f, 0.09801702201366425f, -0.04882584884762764f, -0.1340261548757553f, -0.11605596542358398f,
    0.12420884519815445f, 0.22982510924339294f, 0.05009711906313896f, 0.03776882216334343f, 0.18185487389564514f, -0.08247175812721252f, 0.047071538865566254f, 0.0036397057119756937f, 0.1411079615354538f, -0.025459619238972664f,
    -0.01413477212190628f, -0.1031697615981102f, -0.11884913593530655f, 0.030832771211862564f, 0.05752658471465111f, 0.04908176138997078f, -0.056293752044439316f, 0.04022522270679474f, -0.142288938164711f, 0.006715763360261917f,
    -0.0819968432188034f, 0.06494052708148956f, 0.032794538885354996f, -0.08716510981321335f, 0.008563446812331676f, 0.12220140546560287f, -0.07806471735239029f, 0.06195831671357155f, -0.07200466841459274f, 0.07018961757421494f,
    -0.020983217284083366f, -0.11716154962778091f, -0.1459532082080841f, 0.21492238342761993f, -0.09418398886919022f, 0.018306782469153404f, 0.0541745088994503f, 0.15418849885463715f, 0.0663730651140213f, 0.026821862906217575f,
    0.03239412605762482f, 0.3341357409954071f, -0.006062897853553295f, -0.35466673970222473f, 0.04341494292020798f, -0.2393585741519928f, 0.45626741647720337f, 0.023009715601801872f, 0.44323596358299255f, -0.11365626007318497f,
    -0.14396731555461884f, -0.2145547866821289f, -0.2982345521450043f, 0.36434057354927063f, 0.03466957062482834f, 0.03784922882914543f, 0.02252070978283882f, 0.051136817783117294f, 0.10004129260778427f, 0.12340826541185379f,
    -0.013343737460672855f, 0.053052712231874466f, 0.011058265343308449f, 0.009514274075627327f, -0.08356303721666336f, 0.16887344419956207f, 0.12700583040714264f, 0.03161204606294632f, -0.05708957463502884f, 0.010219795629382133f,
    -0.03228183090686798f, -0.1664736568927765f, 0.05279100313782692f, 0.23364874720573425f, -0.0016197372460737824f, -0.22164513170719147f, 0.0636572390794754f, -0.08065661042928696f, -0.025184154510498047f, 0.09802128374576569f,
    0.11926119029521942f, 0.0319276787340641f, 0.26045289635658264f, -0.015481825917959213f, -0.30750972032546997f, -0.07377784699201584f, 0.13106821477413177f, 0.1104101687669754f, 0.040644604712724686f, 0.2010771483182907f,
    0.04778093844652176f, -0.38080281019210815f, 0.06172771751880646f, -0.10983295738697052f, 0.2626896798610687f, 0.07052119821310043f, 0.3114781975746155f, 0.09611809253692627f, -0.039286114275455475f, -0.1281023770570755f,
    -0.16593210399150848f, 0.2808520197868347f, 0.013652252033352852f, -0.019080867990851402f, -0.10205206274986267f, 0.2719656527042389f, 0.08021474629640579f, -0.06220493093132973f, -0.31345897912979126f, -0.14640282094478607f,
    0.3268081247806549f, -0.24406760931015015f, 0.37880194187164307f, -0.011122442781925201f, -0.07001903653144836f, 0.0031664997804909945f, -0.02492757886648178f, 0.2064274102449417f, 0.08309440314769745f, 0.19155018031597137f,
    -0.15455393493175507f, 0.11101725697517395f, -0.2224331647157669f, -0.09498763829469681f, -0.038653574883937836f, -0.006579023320227861f, 0.03369242697954178f, 0.11026723682880402f, 0.034689851105213165f, -0.1361038237810135f,
    0.0027694208547472954f, 0.11706537753343582f, 0.0614505335688591f, -0.08464402705430984f, 0.13490810990333557f, -0.06978890299797058f, 0.10387410968542099f, 0.17669568955898285f, -0.028832068666815758f, -0.061474550515413284f,
    -0.09203837066888809f, 0.0261075459420681f, 0.0616234615445137f, 0.05228641629219055f, -0.15569725632667542f, 0.05187585949897766f, 0.16572539508342743f, -0.06210397556424141f, 0.12508204579353333f, -0.031554702669382095f,
    -0.14115175604820251f, 0.21061639487743378f, 0.1879991739988327f, -0.06350135058164597f, 0.015988001599907875f, 0.06813853979110718f, -0.28252434730529785f, 0.035734087228775024f, -0.14679089188575745f, -0.18720212578773499f,
    -0.05508531257510185f, 0.01950843445956707f, 0.2116326093673706f, 0.22294089198112488f, 0.07460634410381317f, 0.07992491126060486f, 0.10364508628845215f, 0.16737861931324005f, -0.015593157149851322f, 0.40899398922920227f,
    0.03132736682891846f, -0.4100968539714813f, -0.002039005048573017f, -0.3788621425628662f, 0.4256933927536011f, -0.2554636299610138f, 0.2848712205886841f, 0.06577254086732864f, -0.11659163236618042f, -0.22724981606006622f,
    -0.32432931661605835f, 0.5317557454109192f, -0.13876496255397797f, 0.0014215074479579926f, 0.09750974178314209f, 0.10550189763307571f, -0.18778234720230103f, -0.04121032729744911f, 0.028641246259212494f, -0.06421708315610886f,
    0.1917354166507721f, 0.19084234535694122f, 0.05294128134846687f, -0.11565020680427551f, 0.05793001130223274f, 0.09099602699279785f, -0.14668653905391693f, -0.08948454260826111f, -0.11529998481273651f, 0.2010866403579712f,
    -0.05975409597158432f, 0.3175366520881653f, -0.1300681233406067f, -0.27598807215690613f, 0.08129049092531204f, -0.05637814477086067f, 0.24442043900489807f, 0.24142998456954956f, 0.2765536606311798f, 0.06891937553882599f,
    0.02252098359167576f, -0.040821004658937454f, -0.13028712570667267f, 0.0366009920835495f, 0.11733940243721008f, 0.21399077773094177f, -0.08484899252653122f, 0.2191433161497116f, -0.0766800120472908f, -0.14821144938468933f,
    0.2846280038356781f, -0.30017054080963135f, 0.31972360610961914f, 0.3098243176937103f, 0.20884627103805542f, -0.07616141438484192f, -0.07475648820400238f, -0.1942848563194275f, -0.31918320059776306f, 0.33460843563079834f,
    -0.050079431384801865f, -0.03158663585782051f, 0.0352281890809536f, 0.35067448019981384f, 0.03601308912038803f, -0.08970239758491516f, -0.27280116081237793f, -0.1911194771528244f, 0.11338343471288681f, -0.044790033251047134f,
    0.318248987197876f, -0.036626186221838f, -0.07276274263858795f, 0.025864679366350174f, -0.25185632705688477f, 0.22902612388134003f, -0.11691107600927353f, 0.010288605466485023f, 0.10066457092761993f, 0.08291449397802353f,
    0.08300340920686722f, 0.04612771049141884f, 0.10990085452795029f, 0.20073264837265015f, 0.10602695494890213f, -0.11741550266742706f, 0.10759986191987991f, -0.11804039776325226f, 0.19137699902057648f, -0.07987533509731293f,
    -0.09510750323534012f, 0.11637970805168152f, -0.19360390305519104f, -0.15071052312850952f, 0.041990336030721664f, -0.0181792713701725f, -0.012925242073833942f, 0.08221350610256195f, 0.05418061092495918f, 0.16358859837055206f,
    0.03970596194267273f, -0.15189604461193085f, -0.09200742840766907f, -0.05954432114958763f, -0.07795871049165726f, -0.05114888772368431f, 0.18790695071220398f, -0.03105972707271576f, 0.0990159809589386f, 0.12248935550451279f,
    0.01840977929532528f, -0.12124756723642349f, -0.1497020572423935f, 0.08809434622526169f, 0.0014885087730363011f, -0.029892051592469215f, -0.11711486428976059f, -0.13322938978672028f, -0.2798008620738983f, -0.007809433154761791f,
    0.116698257625103f, 0.2023693025112152f, -0.011326192878186703f, 0.11785828322172165f, -0.09059766680002213f, 0.13939283788204193f, 0.09400153905153275f, 0.30905812978744507f, 0.08769544214010239f, -0.20139409601688385f,
    -0.07515238970518112f, -0.39899858832359314f, 0.5289408564567566f, -0.09157250076532364f, 0.417537659406662f, -0.029605258256196976f, 0.04856022819876671f, -0.22183910012245178f, -0.41107460856437683f, 0.40485334396362305f,
    -0.1346142590045929f, 0.00782660860568285f, -0.12718699872493744f, -0.049254488199949265f, -0.1839771419763565f, 0.13535140454769135f, 0.010933700017631054f, -0.08764315396547318f, 0.0915137231349945f, 0.10431062430143356f,
    0.0845513641834259f, 0.1623721420764923f, -0.054781727492809296f, 0.07056780904531479f, -0.058264799416065216f, -0.09774767607450485f, 0.15109610557556152f, -0.1658870130777359f, -0.009302162565290928f, 0.33182284235954285f,
    -0.18762780725955963f, -0.21710406243801117f, 0.2515820860862732f, -0.0686107873916626f, 0.22472155094146729f, 0.13418400287628174f, 0.26216691732406616f, 0.24108768999576569f, 0.09473425149917603f, -0.2363376021385193f,
    -0.13814491033554077f, 0.2882468104362488f, 0.17696337401866913f, 0.09971524029970169f, 0.15845924615859985f, 0.2220175564289093f, 0.09154684841632843f, -0.19113989174365997f, 0.1338815540075302f, -0.22201339900493622f,
    0.30190467834472656f, 0.161578968167305f, 0.09708268940448761f, 0.06570351868867874f, -0.07377924025058746f, -0.32645300030708313f, -0.42016226053237915f, 0.02343994379043579f, 0.024537591263651848f, -0.1496635228395462f,
    -0.11322202533483505f, 0.40131518244743347f, 0.19641323387622833f, 0.012531065382063389f, -0.04452647641301155f, -0.2277241200208664f, 0.24894870817661285f, 0.013436742126941681f, 0.4115082025527954f, -0.07101581990718842f,
    -0.023143993690609932f, -0.041659481823444366f, -0.0769602581858635f, 0.22370801866054535f, -0.10263621062040329f, -0.04881846904754639f, 0.22318069636821747f, 0.19419443607330322f, -0.12836864590644836f, 0.10037261247634888f,
    -0.08978483825922012f, 0.12594924867153168f, -0.10904036462306976f, 0.11445017904043198f, 0.11320076882839203f, 0.09823974967002869f, 0.044693853706121445f, -0.08960346132516861f, -0.07750990986824036f, 0.10713078826665878f,
    -0.12033668905496597f, -0.09899669140577316f, -0.019311467185616493f, 0.12268415838479996f, 0.07211034744977951f, 0.11567243933677673f, -0.02518416941165924f, 0.17034614086151123f, 0.12308071553707123f, 0.017053691670298576f,
    0.08813823014497757f, 0.17946675419807434f, 0.1819881945848465f, 0.08957978338003159f, 0.12289956212043762f, 0.09232711791992188f, -0.07345861196517944f, -0.19670020043849945f, 0.11638529598712921f, -0.14803631603717804f,
    -0.028716403990983963f, 0.2128908336162567f, -0.25222986936569214f, 0.22076712548732758f, -0.2530120313167572f, -0.06462940573692322f, -0.09489008039236069f, 0.1556282788515091f, 0.059773948043584824f, 0.08766992390155792f,
    0.08402799069881439f, 0.12422527372837067f, 0.060817357152700424f, 0.014581016264855862f, -0.016397271305322647f, 0.46167030930519104f, 0.22612397372722626f, -0.42757534980773926f, -0.06782885640859604f, -0.22444283962249756f,
    0.3296283185482025f, -0.005077904090285301f, 0.44487282633781433f, -0.09838531911373138f, 0.10411407053470612f, -0.393471360206604f, -0.41072723269462585f, 0.3103911578655243f, 0.09551344066858292f, -0.129572793841362f,
    0.1417260468006134f, 0.018918005749583244f, 0.11458542197942734f, 0.14354678988456726f, 0.0718756690621376f, -0.08885814994573593f, 0.042209725826978683f, 0.06930064409971237f, 0.18627779185771942f, 0.06717786937952042f,
    0.08630341291427612f, -0.14097829163074493f, 0.011556223034858704f, 0.15791462361812592f, -0.03542182967066765f, -0.23349004983901978f, 0.03160090371966362f, 0.14431864023208618f, 0.09139909595251083f, -0.08879328519105911f,
    0.22223983705043793f, -0.25047630071640015f, 0.09570788592100143f, 0.13735640048980713f, 0.2867816686630249f, 0.15390877425670624f, 0.119794562458992f, -0.32773357629776f, -0.36928531527519226f, 0.19091378152370453f,
    -0.07554534822702408f, 0.044031642377376556f,
};

#endif // W2_H
